svm_type c_svc
kernel_type rbf
gamma 2
nr_class 2
total_sv 100
rho -22.480975018211879
label 0 1
nr_sv 51 49
SV
13032.231998737163 
32768 1:0.012024048 2:0.012480641 
32768 1:0.026052104 2:0.025955982 
32768 1:0.038076152 2:0.038733447 
32768 1:0.06012024 2:0.060471672 
32768 1:0.086172345 2:0.086525784 
32768 1:0.10220441 2:0.10286545 
32768 1:0.12224449 2:0.12272043 
32768 1:0.13026052 2:0.13034105 
32768 1:0.14028056 2:0.1404752 
32768 1:0.17034068 2:0.17079662 
32768 1:0.21242485 2:0.21251151 
32768 1:0.23847695 2:0.23864042 
32768 1:0.24849699 2:0.24905657 
32768 1:0.250501 2:0.25081815 
32768 1:0.25651303 2:0.25696077 
32768 1:0.26052104 2:0.26081141 
27824.675537830179 1:0.26252505 2:0.26252002 
32768 1:0.30260521 2:0.30336089 
32768 1:0.31863727 2:0.31934628 
32768 1:0.3246493 2:0.3247984 
32768 1:0.33867735 2:0.33924965 
32768 1:0.35871743 2:0.35911946 
32768 1:0.37675351 2:0.37747973 
32768 1:0.39679359 2:0.39747224 
32768 1:0.43486974 2:0.43554503 
32768 1:0.45490982 2:0.45515085 
32768 1:0.48697395 2:0.48748382 
12912.843685240327 1:0.5250501 2:0.52528108 
32768 1:0.52905812 2:0.52974795 
32768 1:0.5511022 2:0.55186673 
32768 1:0.55911824 2:0.55967033 
32768 1:0.56713427 2:0.5675793 
32768 1:0.58917836 2:0.58990105 
32768 1:0.63927856 2:0.63981503 
32768 1:0.65330661 2:0.65367057 
32768 1:0.68937876 2:0.68998675 
32768 1:0.70941884 2:0.70977818 
32768 1:0.74348697 2:0.74376932 
25080.600030887392 1:0.75551102 2:0.75574566 
32768 1:0.80360721 2:0.80419891 
32768 1:0.80961924 2:0.81034051 
32768 1:0.84168337 2:0.84188073 
32768 1:0.85771543 2:0.85791737 
32768 1:0.85971944 2:0.86031882 
10213.510671991233 1:0.94188377 2:0.94188155 
32768 1:0.94388778 2:0.94450327 
32768 1:0.95791583 2:0.95820365 
32768 1:0.9739479 2:0.97462902 
32768 1:0.99398798 2:0.99410065 
12141.233291682243 1:1 2:1 
-32768 1:0.006012024 2:0.0073876751 
-32768 1:0.03006012 2:0.031163106 
-8717.1055086617544 1:0.032064128 2:0.033675283 
-32768 1:0.042084168 2:0.042873537 
-32768 1:0.056112224 2:0.05755191 
-32768 1:0.080160321 2:0.081182378 
-32768 1:0.092184369 2:0.093619317 
-32768 1:0.096192385 2:0.097187009 
-32768 1:0.12024048 2:0.12146633 
-32768 1:0.15430862 2:0.15514559 
-32768 1:0.16833667 2:0.16951579 
-32768 1:0.20240481 2:0.20346377 
-32768 1:0.23046092 2:0.2316732 
-32768 1:0.23446894 2:0.2354427 
-32768 1:0.24048096 2:0.24125781 
-32768 1:0.24448898 2:0.24554621 
-32768 1:0.26853707 2:0.2693139 
-32768 1:0.30661323 2:0.30741521 
-32768 1:0.32064128 2:0.32143015 
-32768 1:0.32865731 2:0.32973077 
-32768 1:0.33466934 2:0.33595031 
-32768 1:0.34869739 2:0.35001356 
-32768 1:0.36072144 2:0.36165683 
-32768 1:0.36272545 2:0.36357646 
-32768 1:0.39278557 2:0.39361915 
-32768 1:0.4248497 2:0.42566752 
-32768 1:0.42685371 2:0.4282148 
-32768 1:0.45891784 2:0.45997044 
-32768 1:0.50501002 2:0.50611097 
-32768 1:0.50701403 2:0.50844024 
-32768 1:0.6012024 2:0.60231673 
-32768 1:0.60721443 2:0.60815233 
-32768 1:0.60921844 2:0.61042956 
-32768 1:0.62324649 2:0.6245076 
-32768 1:0.67134269 2:0.67251081 
-29629.092285422696 1:0.6753507 2:0.67695849 
-32768 1:0.70140281 2:0.70232396 
-32768 1:0.70340681 2:0.70453544 
-32768 1:0.73346693 2:0.73439981 
-32768 1:0.74749499 2:0.74864931 
-32768 1:0.78156313 2:0.78301581 
-32768 1:0.81563126 2:0.81698425 
-32768 1:0.90380762 2:0.90498229 
-32768 1:0.91182365 2:0.91337573 
-32768 1:0.91382766 2:0.91507218 
-32768 1:0.93787575 2:0.9387953 
-32768 1:0.96392786 2:0.96566893 
-32768 1:0.97795591 2:0.97939461 
-30090.897422284685 1:0.98797595 2:0.98990513 
