svm_type c_svc
kernel_type rbf
gamma 0.5
nr_class 2
total_sv 200
rho -2.9313648363017406
label 0 1
nr_sv 100 100
SV
2048 1:-1.7285902 2:-1.7307216 
2048 1:-1.7147337 2:-1.7204193 
2048 1:-1.6870209 2:-1.6875874 
2048 1:-1.6800926 2:-1.6854236 
2048 1:-1.6385233 2:-1.6410155 
1498.8691632836203 1:-1.6108105 2:-1.6173439 
2048 1:-1.596954 2:-1.5968555 
2048 1:-1.5692412 2:-1.5747197 
2048 1:-1.5207437 2:-1.5217263 
2048 1:-1.4306768 2:-1.431681 
2048 1:-1.4237486 2:-1.4268894 
2048 1:-1.402964 2:-1.4061387 
2048 1:-1.3752511 2:-1.3752097 
2048 1:-1.3613947 2:-1.3642196 
1599.8276355507037 1:-1.34061 2:-1.3458762 
2048 1:-1.3059689 2:-1.3065892 
2048 1:-1.2782561 2:-1.2802517 
2048 1:-1.2505432 2:-1.2545812 
2048 1:-1.243615 2:-1.2452272 
2048 1:-1.2366867 2:-1.2394657 
2048 1:-1.181261 2:-1.1846134 
2048 1:-1.1396917 2:-1.1404337 
2048 1:-1.0011274 2:-1.005486 
2048 1:-0.99419915 2:-0.99626348 
2048 1:-0.95955807 2:-0.96463848 
2048 1:-0.90413233 2:-0.90595969 
2048 1:-0.87641946 2:-0.88038761 
2048 1:-0.86949124 2:-0.86996057 
2048 1:-0.86256303 2:-0.86387241 
2048 1:-0.84177838 2:-0.842643 
2048 1:-0.82792194 2:-0.82933486 
2048 1:-0.82099372 2:-0.82342974 
1503.1248708980152 1:-0.74478334 2:-0.75081395 
2048 1:-0.68242938 2:-0.68228015 
2048 1:-0.67550117 2:-0.67847726 
2048 1:-0.62700365 2:-0.62703328 
2048 1:-0.606219 2:-0.60819029 
2048 1:-0.55772148 2:-0.55824549 
2048 1:-0.49536752 2:-0.49802568 
2048 1:-0.4884393 2:-0.48957371 
2048 1:-0.44687 2:-0.45057935 
2048 1:-0.42608535 2:-0.42611905 
2048 1:-0.39837248 2:-0.40334233 
2048 1:-0.3637314 2:-0.3660695 
2048 1:-0.35680318 2:-0.3570232 
2048 1:-0.28059279 2:-0.28441011 
2048 1:-0.26673636 2:-0.27034568 
2048 1:-0.22516706 2:-0.22544036 
2048 1:-0.2043824 2:-0.20769063 
2048 1:-0.19052597 2:-0.19458893 
2048 1:-0.15588488 2:-0.15768093 
2048 1:-0.051961628 2:-0.053958111 
2048 1:-0.045033411 2:-0.045935395 
2048 1:-0.031176977 2:-0.033813945 
2048 1:0.086602714 2:0.084695211 
2048 1:0.10045915 2:0.10013309 
2048 1:0.17666954 2:0.17657749 
2048 1:0.19745419 2:0.19527122 
2048 1:0.2043824 2:0.20354744 
2048 1:0.23209527 2:0.23088151 
2048 1:0.27366457 2:0.27083672 
2048 1:0.30137744 2:0.29930218 
2048 1:0.30830566 2:0.30802741 
2048 1:0.31523388 2:0.31215129 
2048 1:0.34294675 2:0.33999591 
2048 1:0.43994179 2:0.43672232 
2048 1:0.45379822 2:0.45125673 
2048 1:0.46765465 2:0.46478163 
2048 1:0.48151109 2:0.48053443 
2048 1:0.53000861 2:0.52842038 
2048 1:0.64086008 2:0.63843554 
2048 1:0.65471651 2:0.65393223 
2048 1:0.66857295 2:0.66500953 
2048 1:0.72399869 2:0.72233313 
675.22128587290615 1:0.74478334 2:0.74010543 
2048 1:0.84177838 2:0.83980944 
2048 1:0.88334768 2:0.88120071 
2048 1:0.89720411 2:0.8927471 
2048 1:1.0357685 2:1.0319862 
2048 1:1.0496249 2:1.0486594 
2048 1:1.0634813 2:1.0603409 
2048 1:1.0704095 2:1.0698852 
2048 1:1.0981224 2:1.095703 
2048 1:1.1743328 2:1.1704466 
2048 1:1.181261 2:1.178891 
2048 1:1.2366867 2:1.234315 
2048 1:1.243615 2:1.2426146 
2048 1:1.3059689 2:1.3031368 
2048 1:1.4583897 2:1.4534741 
1266.7770540629585 1:1.5068872 2:1.501118 
2048 1:1.5207437 2:1.516395 
2048 1:1.5276719 2:1.5245024 
2048 1:1.5346001 2:1.5335633 
1921.7602529230933 1:1.5553847 2:1.5491657 
2048 1:1.5830976 2:1.580913 
2048 1:1.6108105 2:1.6051919 
2048 1:1.6385233 2:1.6376805 
2048 1:1.6731644 2:1.6687934 
2048 1:1.7078055 2:1.7049762 
2048 1:1.7285902 2:1.7253648 
-2048 1:-1.7078055 2:-1.7051892 
-2048 1:-1.7008773 2:-1.6954109 
-1320.8070510014898 1:-1.6731644 2:-1.667097 
-2048 1:-1.659308 2:-1.6539158 
-2048 1:-1.6523798 2:-1.6484224 
-2048 1:-1.6246669 2:-1.6230192 
-2048 1:-1.6177387 2:-1.6143369 
-2048 1:-1.5830976 2:-1.582547 
-2048 1:-1.5484565 2:-1.544622 
-2048 1:-1.5346001 2:-1.5318172 
-2048 1:-1.4514615 2:-1.4501483 
-2048 1:-1.4098922 2:-1.4071652 
-2048 1:-1.3960357 2:-1.3948349 
-1708.5346401046691 1:-1.3821793 2:-1.3771599 
-2048 1:-1.3336818 2:-1.3290823 
-2048 1:-1.3128971 2:-1.3109235 
-2048 1:-1.2921125 2:-1.2891176 
-2048 1:-1.2159021 2:-1.2129439 
-2048 1:-1.1951174 2:-1.1945251 
-2048 1:-1.1743328 2:-1.1712872 
-2048 1:-1.1466199 2:-1.1448604 
-2048 1:-1.0911942 2:-1.0870084 
-2048 1:-1.0634813 2:-1.060461 
-2048 1:-1.0288402 2:-1.0275333 
-2048 1:-0.96648628 2:-0.96361607 
-2048 1:-0.9318452 2:-0.93003901 
-2048 1:-0.91798876 2:-0.9170113 
-2048 1:-0.89720411 2:-0.89691379 
-2048 1:-0.88334768 2:-0.88209268 
-2048 1:-0.81406551 2:-0.81110131 
-2048 1:-0.80020907 2:-0.79994949 
-2048 1:-0.76556799 2:-0.76335259 
-2048 1:-0.75171155 2:-0.74922262 
-2048 1:-0.73785512 2:-0.73557051 
-2048 1:-0.66857295 2:-0.66826808 
-2048 1:-0.62007543 2:-0.61983124 
-2048 1:-0.59236256 2:-0.59114356 
-2048 1:-0.57157791 2:-0.56964831 
-2048 1:-0.52308039 2:-0.52104451 
-2048 1:-0.48151109 2:-0.48080437 
-2048 1:-0.47458287 2:-0.47416994 
-2048 1:-0.37758783 2:-0.37512473 
-2048 1:-0.37065961 2:-0.37033981 
-2048 1:-0.32909031 2:-0.32597901 
-2048 1:-0.30137744 2:-0.29792428 
-2048 1:-0.25980814 2:-0.25957788 
-2048 1:-0.25287992 2:-0.25077424 
-2048 1:-0.23902349 2:-0.23654117 
-2048 1:-0.23209527 2:-0.2286542 
-2048 1:-0.14202845 2:-0.141024 
-2048 1:-0.11431558 2:-0.11132574 
-2048 1:-0.065818062 2:-0.061218294 
-1872.7250575972366 1:-0.058889845 2:-0.054005186 
-2048 1:0.017320543 2:0.018441654 
-2048 1:0.02424876 2:0.026491792 
-2048 1:0.045033411 2:0.049381605 
-2048 1:0.14202845 2:0.1471914 
-2048 1:0.18359775 2:0.18704229 
-2048 1:0.19052597 2:0.19363584 
-1515.1572684480209 1:0.23902349 2:0.2447363 
-2048 1:0.24595171 2:0.25031185 
-2048 1:0.29444923 2:0.29957578 
-2048 1:0.34987496 2:0.35093707 
-2048 1:0.37065961 2:0.37110541 
-2048 1:0.37758783 2:0.3789757 
-2048 1:0.39837248 2:0.40214564 
-2048 1:0.41915713 2:0.42418917 
-2048 1:0.42608535 2:0.42763063 
-2048 1:0.55772148 2:0.5613808 
-2048 1:0.59236256 2:0.59353389 
-2048 1:0.606219 2:0.60890546 
-2048 1:0.61314721 2:0.61686715 
-2048 1:0.69628582 2:0.69657071 
-2048 1:0.70321403 2:0.70421377 
-2048 1:0.80713729 2:0.80742761 
-2048 1:0.85563481 2:0.85667513 
-2048 1:0.86949124 2:0.87324156 
-2048 1:0.94570163 2:0.9499385 
-779.9772387896661 1:0.95955807 2:0.96428946 
-2048 1:0.9734145 2:0.9754487 
-2048 1:1.0080556 2:1.0126014 
-2048 1:1.0911942 2:1.0928466 
-2048 1:1.1119788 2:1.1160598 
-2048 1:1.1396917 2:1.1446972 
-2048 1:1.2574714 2:1.2620143 
-2048 1:1.2713278 2:1.2764544 
-2048 1:1.3544664 2:1.3591716 
-2048 1:1.3891075 2:1.39394 
-2048 1:1.3960357 2:1.3969754 
-1268.3790066502038 1:1.4098922 2:1.4156959 
-2048 1:1.4237486 2:1.4259839 
-2048 1:1.4306768 2:1.431847 
-2048 1:1.5138154 2:1.5138361 
-2048 1:1.596954 2:1.6001299 
-2048 1:1.6038823 2:1.6067137 
-2048 1:1.6523798 2:1.6541508 
-2048 1:1.6662362 2:1.6696483 
-2048 1:1.6800926 2:1.6841103 
-2048 1:1.6870209 2:1.6904761 
-2048 1:1.7008773 2:1.7061495 
